<?xml version="1.0"?>
<opencv_storage>
<stage8>
  <maxWeakCount>5</maxWeakCount>
  <stageThreshold>-1.9765099287033081e+00</stageThreshold>
  <weakClassifiers>
    <_>
      <internalNodes>
        0 -1 141457 3.8094781339168549e-02</internalNodes>
      <leafValues>
        -9.3604654073715210e-01 6.0000002384185791e-01</leafValues></_>
    <_>
      <internalNodes>
        0 -1 553 -5.6595849990844727e-01</internalNodes>
      <leafValues>
        1.4622454764321446e-03 -7.8580105304718018e-01</leafValues></_>
    <_>
      <internalNodes>
        0 -1 26570 3.8160115480422974e-02</internalNodes>
      <leafValues>
        -7.3446422815322876e-01 1.7773163318634033e-01</leafValues></_>
    <_>
      <internalNodes>
        0 -1 13357 1.0644353460520506e-03</internalNodes>
      <leafValues>
        -6.2543851137161255e-01 3.5551410913467407e-01</leafValues></_>
    <_>
      <internalNodes>
        0 -1 155689 3.4557201433926821e-04</internalNodes>
      <leafValues>
        2.3493465781211853e-01 -7.8790813684463501e-01</leafValues></_></weakClassifiers></stage8>
</opencv_storage>
